18 24 16 7
1.90441 1.74632 0.976103 0.242647 0.382353 0.261029 3.07721 0.860294 0.860294 0.915441 0.25 0.525735 0.452206 0.261029 0.433824 2.11765 2.22426 0.485294
0.294026 0.490709 0.460158 0.428683 0.485962 0.439196 0.881548 0.590025 0.590025 0.759874 0.449673 0.499337 0.49771 0.439196 0.495601 0.786455 0.442751 0.499784
-0.0514829 -0.112446 0.314875 0.0832128 0.112363 0.363475 0.0743822 -0.145338 0.00782299 -0.295113 -0.301179 -0.0401703 0.14423 0.257769 -0.24209 0.225944 -0.332555 0.0204804 -0.0460233 0.045289 -0.583291 0.423841 0.146032 -0.36327 0.268797 -0.281019 -0.44502 -0.103355 0.0224171 -0.414418 -0.227858 0.374538 -0.0860836 0.562848 0.0926317 0.155437 -0.0237596 -0.50502 0.211386 -0.947429 -0.0766904 0.501651 -0.5572 -0.307572 0.04666 -0.129249 0.0462138 0.382775 -0.0757713 0.335447 0.0825739 -0.133746 -0.0111406 0.25362 0.598504 -0.123248 -0.322501 0.129084 -0.132692 -0.528957 -0.738085 -0.039442 0.360934 0.344175 0.469626 -0.707167 -0.0997364 -0.0192646 -0.132936 -0.202046 0.471954 -0.509778 -0.0520243 -0.211245 -0.248386 0.0879003 -0.513825 0.10137 0.288946 -0.00956316 -0.278482 0.758141 -0.482794 -0.0770139 -0.223922 0.315301 -0.331571 0.308498 0.377782 -0.471736 0.115428 -0.131519 0.0577659 0.191915 0.140043 0.880676 -0.0391225 -0.173129 -0.235605 -0.505427 -0.198374 0.147444 0.419295 -0.121003 0.272619 -0.220634 -0.408584 0.358711 0.51322 -0.0547203 0.427836 0.0117727 0.0419974 -0.354071 0.082167 0.102885 0.0300578 0.21091 -0.0734284 0.504202 0.141878 0.138699 0.165563 0.132448 -0.344531 0.0624326 0.144775 0.66214 0.410862 -0.683395 -0.280632 -0.0941924 0.0973725 0.287021 -0.369697 -0.544959 -0.156588 -0.517503 -0.202186 0.00543364 -0.159092 0.0318805 0.108076 -0.327233 -0.141198 -0.0367247 -0.307864 -0.114664 -0.0836193 -0.136349 -0.32237 -0.00508257 0.109846 -0.0336065 0.6861 0.335034 0.237836 -0.135216 -0.213476 -0.0918361 -0.498737 0.665515 0.228951 -0.321284 -0.125386 0.0316417 0.391179 -0.241014 0.108571 0.386177 0.0885935 0.218589 0.0467024 0.144576 0.184691 0.389665 0.225446 -0.137017 0.767387 -0.0833607 -0.216809 0.324063 0.185835 0.444744 0.487949 -0.532403 0.262569 0.0577812 0.507017 -0.0991293 -0.497133 -0.367128 0.241844 -0.277048 -0.571826 0.120364 0.523779 0.467798 -0.247808 -0.387328 0.397112 -0.193086 -0.149197 0.0497842 -0.191627 1.01224 0.456783 -0.365366 0.387271 0.0701106 0.191016 0.649387 -0.544794 0.172479 -0.0499694 -0.0128179 0.23343 0.167723 -0.214044 -0.388687 -0.0229162 -0.526202 0.726071 0.135232 -0.532546 -0.257597 0.920495 0.155521 -0.408133 -0.265749 -0.368445 0.554272 -0.503172 0.876232 -0.627117 -0.696604 -0.0908677 -0.406216 -0.0388271 0.0164468 0.12943 -0.171653 -0.198542 0.265953 0.301402 -0.137034 -0.138539 -0.361398 -0.0586561 0.238662 0.418663 0.798508 -0.571686 -0.664928 -0.492031 0.223453 -0.895256 -0.474599 -0.462971 -0.182441 0.346202 -0.148552 -0.648291 -0.118171 0.169086 0.367624 -0.0667503 0.574288 0.00354701 0.0597562 -0.124518 0.0256117 -0.468977 0.13752 -0.268499 0.523706 0.413385 0.266396 0.276834 -0.0249198 -0.289225 -0.199202 0.168076 0.223224 0.368539 -0.187937 0.677349 0.328538 -0.457578 0.206031 0.333958 -0.211108 -0.00931402 -0.270581 -0.357612 -0.10377 0.1424 -0.023454 0.402419 0.0407202 0.00373402 0.24412 0.287396 0.297039 -0.51653 0.194066 0.181762 -0.0664781 0.335813 0.160973 0.699514 -0.117976 0.371731 0.269056 1.3153 -0.296802 -0.431506 0.182515 -0.0155333 0.250253 -0.129634 0.120627 0.0390506 0.438679 -0.274674 -0.0336857 -0.0467452 -0.0684304 0.106507 0.160635 0.350461 0.12407 0.156621 0.669284 0.147707 0.576194 0.395689 0.092006 0.0330476 0.775749 -0.00674838 -0.306278 -0.67544 0.108468 0.589695 0.296346 0.228753 -0.169666 -0.236442 0.00467228 0.40747 0.0917994 0.391681 -0.402516 -0.059593 -0.224738 -0.206117 -0.14719 -0.0708479 0.0119813 0.496146 -0.545175 0.0869329 -0.377875 0.203136 -0.0668309 0.303994 -0.323041 0.277224 -0.789291 -0.359537 0.788285 0.150259 0.138298 0.0433237 -0.188062 -0.112104 0.344205 0.0197967 -0.210573 -0.263649 0.177357 -0.133268 0.607828 0.0723199 -0.733827 -0.0117475 0.15323 -0.0548002 -0.542402 0.164623 -0.258386 0.151279 -0.240556 0.0796249 -0.756205 0.10928 -0.174646 0.051054 -0.037038 0.519447 -0.443749 0.247173 -0.329077 -0.285329 -0.217636 -1.1749 0.0280278 0.0218761 0.378649 0.21657 -0.711694 -0.33248 -0.43447 -0.523388 0.534456 0.634188 -0.618166 0.210019 0.135971 0.577522 0.403367 0.370891 0.305207 0.0894965 0.0428566 0.416704 -0.131876 -0.244067 -0.214152 -0.211706 -0.776568
0.0719823 0.000199426 0.0330195 0.226243 0.0145615 0.0562231 0.0194193 0.0368746 0.0732123 0.0510766 0.0640521 0.0359148 0.21057 -0.00836364 0.235219 0.129586 -0.000381543 0.0178723 -0.0275855 -0.0223046 0.0534465 0.221183 0.170044 0.238701
-0.0693638 -0.145289 -0.00304972 0.0504579 -0.294457 -0.057119 0.0987052 -0.624247 0.207268 0.100269 0.174096 -0.414573 0.677908 -0.030792 0.0267146 -0.0917974 0.373588 -0.401953 0.121055 0.1995 -0.267044 -0.161667 0.165963 0.395621 0.135698 -0.372588 -0.0742132 -0.26955 -0.102879 -0.340629 -0.29079 -0.171271 0.739934 0.213577 0.146639 0.398479 0.0868006 0.577308 0.0385524 -0.0202521 0.0820147 0.0969645 -0.526588 0.204692 0.260192 0.310458 0.130133 -0.239606 0.491483 -0.0526138 0.23511 -0.443746 -0.277873 -0.224236 0.167974 0.370919 0.278323 -0.438982 0.300099 0.479352 -0.246856 -0.0548791 0.140704 -0.462601 0.230195 -0.266502 -0.306502 0.757961 -0.280986 0.241973 0.172922 0.520643 0.0161397 0.321597 0.277857 -0.081736 -0.423996 0.0818372 -0.482113 -0.0854264 -0.119207 0.359511 -0.167477 -0.139034 -0.154913 -0.431021 -0.0379836 -0.26711 0.338969 0.533885 0.11657 0.286395 0.964947 -0.292943 0.272994 -0.116913 0.555218 -0.12508 -0.184512 -0.175699 0.401124 0.418523 0.0447603 0.159815 0.546724 0.133329 -0.112014 0.154449 0.555212 0.0508389 -0.224141 -0.329865 -0.196023 -0.697118 0.26022 -0.516389 0.132271 0.318457 0.10961 -0.173715 -0.428056 0.173725 -0.192544 -0.310706 0.673113 -0.336772 -0.394987 0.00914048 -0.0567546 -0.0353712 -0.171375 -0.124485 0.506336 0.0346472 -0.0282077 0.683939 0.0791906 0.442275 -0.0264303 -0.378428 0.0434368 0.261765 -0.657666 -0.129158 -0.547259 -0.158606 -0.0423818 -0.0382001 -0.440812 -0.083792 -0.18375 0.035758 -0.565335 0.357633 -0.123736 0.724073 -0.471366 -0.768577 -0.0760475 0.303038 0.102401 0.0296706 -0.057714 -0.167886 -0.214308 0.15624 0.106965 -0.0266418 -0.0232296 -0.156269 -0.597824 -0.307509 0.15179 0.13989 0.0772799 0.059343 -0.253434 0.781572 0.198802 0.0266142 0.526861 0.0010025 -0.185559 0.422009 -0.0875682 0.18732 0.0680579 -0.0602911 0.446987 -0.504753 0.223934 -0.0919858 0.069722 -0.0844806 -0.396348 0.742213 -0.180327 -0.496167 -0.211089 0.444412 -0.408396 0.105647 0.186166 0.24406 0.288215 -0.0786865 -0.274942 0.203448 0.178284 -0.139818 -0.0618189 0.201822 -0.221101 -0.157158 -0.0848733 0.480319 -0.0234053 -0.330085 0.459291 0.436562 -0.06141 0.132001 -0.115473 0.0243264 -0.0465341 0.0939538 -0.263462 0.168875 -0.156002 0.291457 0.23195 -0.307896 -0.376667 0.108178 -0.251459 -0.157961 0.0919231 -0.0766845 -0.249901 -0.294978 -0.548294 -0.145958 0.445826 -0.148424 -0.276006 -0.156523 0.316431 0.195229 -0.00863857 -0.152305 0.279265 0.243407 -0.218434 0.450813 -0.184805 -0.128681 0.36422 0.0672479 0.142056 0.0304012 0.749981 -0.101106 -0.373546 0.0888879 0.0687337 -0.248127 -0.0439496 0.781766 0.00602986 0.567502 -0.11974 -0.210331 0.505385 -0.128845 0.397235 0.0582703 -0.562823 0.361896 0.539863 0.241669 -0.158933 0.28729 -0.136282 -0.0840807 -0.0387211 0.738593 0.661992 -0.207386 -0.412816 0.626335 0.208142 0.319881 0.0677866 -0.222318 0.32678 -0.0912211 0.322037 0.370261 0.0411348 -0.122456 0.670308 -0.0384006 -0.883685 -0.410969 -0.0855679 0.0127604 0.202222 -0.116328 0.32813 0.199313 0.0523515 0.457536 0.241351 0.0691539 0.0663389 -0.239942 -0.159392 -0.519822 -0.368073 0.245789 -0.124305 -0.198896 0.864348 0.409193 0.0691709 -0.211375 0.470556 0.434472 0.303365 0.247481 -0.455243 -0.359185 -0.17017 -0.371132 0.0475969 0.236958 0.0867283 -0.379745 0.977959 0.669667 0.122042 -0.483945 0.110121 0.141835 0.287299 0.00450061 -0.194493 0.614301 -0.456321 0.863172 0.638525 -0.0709202 -0.110645 -0.0997607 0.253184 -0.044165 -0.0109197 0.0839415 0.0141072 0.450819 -0.319064 0.0530444 0.321047 0.183921 0.0442351 -0.0591546 0.382435 -0.0828247 -0.652706 -0.100227 -0.380856 0.475894 -0.337191 0.00655451 -0.585742 -0.134447 -0.442412 -0.0860657 0.159719 -0.391969 0.454961 0.0972658 -0.0955546 -0.419385
0.1074 -0.0279879 0.0193232 -0.144225 0.203147 0.0782993 0.00159171 0.018164 0.151621 0.0464605 -0.0246055 0.405756 0.216403 0.0784943 0.0557526 -0.0459542
0.0269308 -0.31902 -0.505779 -0.423527 0.730947 -0.156094 -0.208467 -0.167407 -0.666246 0.29928 0.139245 1.16752 0.0872318 0.223172 -0.525584 -0.361901 0.251252 0.182569 -0.431178 0.251254 -0.268908 -0.305886 0.078913 -0.0801772 -0.397358 1.05314 -0.238614 0.785236 -0.483749 0.157672 0.789129 0.0274456 -0.0842195 0.309397 -0.456423 -0.120456 -0.0230307 0.690554 0.250104 0.398079 0.089731 -0.197737 0.342501 0.0724066 -0.301854 1.15566 0.0616774 -0.236113 0.61494 0.635116 -0.48626 -0.292865 1.05172 0.53278 -0.604569 0.173528 0.398413 -0.179449 0.229768 -0.511766 0.57207 -0.313246 -0.165958 0.447528 -0.229686 -0.216202 -0.0564793 0.733219 -0.285721 -0.370223 0.479645 0.861711 -0.279741 0.363275 0.362099 -0.0239252 0.365058 -0.0355562 -0.344637 -0.579789 0.584998 -0.168856 0.177889 -0.440968 -0.359929 -0.340686 0.696664 -0.0873224 0.662173 0.236098 0.224465 0.254642 0.537551 0.0651253 0.317152 -0.1609 0.778702 -0.0695273 0.950358 0.172082 -0.275331 0.121018 -0.162496 -0.417423 -0.0399857 0.641393 0.467329 -0.482158 -0.719664 0.618606 0.504447 0.120024
0.747298 -0.196756 -0.233628 -0.263022 -0.0744074 0.198517 -0.178001
